tree
version=v4
num_class=1
num_tree_per_iteration=1
label_index=0
max_feature_idx=33
objective=binary sigmoid:1
feature_names=pkSeqID stime flgs proto saddr sport daddr dport pkts bytes state ltime seq dur mean stddev smac dmac sum min max soui doui sco dco spkts dpkts sbytes dbytes rate srate drate attack category
feature_infos=[68000005:69000000] [1528100651.8086209:1528100900.2092879] [0:2] [0:4] [0:10] [0:112275] [1:13] [0:11] [1:19549] [70:19017260] [0:3] [1528100687.765378:1528101017.1481299] [1:352196] [0:122.2491] [0:4.9333130000000001] [0:2.083196] none none [0:121.96350099999999] [0:3.7822209999999998] [0:5.0276519999999998] none none none none [1:9773] [0:9776] [60:9460636] [0:9730290] [0:159.94915800000001] [0:79.952736000000002] [0:79.974579000000006] [0:1] [0:1]
tree_sizes=995 679 683 462 790 461 1121 1002 687 1016 356 1465 466 355 355 465 684 907 574 467 465 460 675 566

Tree=0
num_leaves=8
num_cat=0
split_feature=33 13 12 12 12 12 13
split_gain=700000 7.10543e-15 1.77636e-15 1.77636e-15 2.22045e-16 1.11022e-16 2.77556e-17
threshold=1.0000000180025095e-35 44.516647500000012 243590.50000000003 191804.50000000003 227777.00000000003 257227.50000000003 96.066681000000017
decision_type=2 2 2 2 2 2 2
left_child=1 -1 3 -3 -5 -4 -7
right_child=-2 2 5 4 -6 6 -8
leaf_value=10.262964033601952 -2582.4295539523491 10.262964033601952 10.26296403360195 10.262964033601952 10.262964033601952 10.262964033601937 10.26296403360195
leaf_weight=16.03333214870873 0.0010413884410799259 9.0662891981082741 0.37050286537123689 0.9659456340159529 0.42847348859140766 0.0069425896072061724 0.12643227073567687
leaf_count=415695 27 235061 9606 25044 11109 180 3278
internal_value=10.163 10.263 10.263 10.263 10.263 10.263 10.263
internal_weight=0 26.9979 10.9646 10.4607 1.39442 0.503878 0.133375
internal_count=700000 699973 284278 271214 36153 13064 3458
is_linear=0
shrinkage=1


Tree=1
num_leaves=5
num_cat=0
split_feature=0 0 18 18
split_gain=3.55271e-15 2.22045e-16 5.55112e-17 6.93889e-18
threshold=68059136.000000015 68011886.000000015 14.956523500000001 14.921386500000002
decision_type=2 2 2 2
left_child=1 2 3 -1
right_child=-2 -3 -4 -5
leaf_value=0.10000349207797177 0.10000349207798656 0.10000349207798648 0.10000349207798616 0.10000349207797632
leaf_weight=0.024045856982413905 22.980161352781579 1.157795798826555 0.25703590228658868 0.0097719012410379946
leaf_count=689 658491 33175 7365 280
internal_value=0 0.100003 0.100003 0.100003
internal_weight=0 1.44865 0.290854 0.0338178
internal_count=700000 41509 8334 969
is_linear=0
shrinkage=0.1


Tree=2
num_leaves=5
num_cat=0
split_feature=0 0 5 13
split_gain=3.55271e-15 8.88178e-16 1.38778e-17 1.38778e-17
threshold=68204847.500000015 68004147.500000015 54214.500000000007 41.802523000000008
decision_type=2 2 2 2
left_child=1 2 3 -1
right_child=-2 -3 -4 -5
leaf_value=0.10000315658710253 0.10000315658711184 0.10000315658711184 0.10000315658710637 0.10000315658710904
leaf_weight=0.038178534119654439 17.579904449969035 4.4323414975187916 0.018284012618096313 0.03546277404166176
leaf_count=1209 556726 140363 579 1123
internal_value=0 0.100003 0.100003 0.100003
internal_weight=0 4.52427 0.0919253 0.0736413
internal_count=700000 143274 2911 2332
is_linear=0
shrinkage=0.1


Tree=3
num_leaves=3
num_cat=0
split_feature=0 5
split_gain=3.55271e-15 5.55112e-17
threshold=68984305.500000015 39645.000000000007
decision_type=2 2
left_child=-1 -2
right_child=1 -3
leaf_value=0.10000285832602039 0.10000285832602041 0.100002858326002
leaf_weight=19.687943633234685 0.30736606407117406 0.0054289813306240822
leaf_count=689053 10757 190
internal_value=0 0.100003
internal_weight=0 0.312795
internal_count=700000 10947
is_linear=0
shrinkage=0.1


Tree=4
num_leaves=6
num_cat=0
split_feature=0 0 0 5 12
split_gain=7.10543e-15 1.77636e-15 1.77636e-15 2.22045e-16 1.11022e-16
threshold=68445432.500000015 68960711.000000015 68909424.000000015 6991.0000000000009 30419.500000000004
decision_type=2 2 2 2 2
left_child=-1 2 -2 -3 -4
right_child=1 3 4 -5 -6
leaf_value=0.10000258202121037 0.10000258202121047 0.10000258202120867 0.10000258202121011 0.10000258202121026 0.10000258202121015
leaf_weight=8.062498415367374 8.3955304480004944 0.10080676152756574 0.55214906365290595 0.610321726755501 0.37615736687985191
leaf_count=311852 324729 3899 21363 23606 14551
internal_value=0 0.100003 0.100003 0.100003 0.100003
internal_weight=0 10.035 9.32384 0.711128 0.928306
internal_count=700000 388148 360643 27505 35914
is_linear=0
shrinkage=0.1


Tree=5
num_leaves=3
num_cat=0
split_feature=0 4
split_gain=3.55271e-15 5.55112e-17
threshold=68984305.500000015 1.5000000000000002
decision_type=2 2
left_child=-1 -2
right_child=1 -3
leaf_value=0.1000023403924286 0.10000234039242861 0.10000234039242782
leaf_weight=16.119203951104286 0.12843409347624302 0.12766208526409173
leaf_count=689053 5490 5457
internal_value=0 0.100002
internal_weight=0 0.256096
internal_count=700000 10947
is_linear=0
shrinkage=0.1


Tree=6
num_leaves=9
num_cat=0
split_feature=0 0 0 0 5 13 5 5
split_gain=1.77636e-15 1.77636e-15 1.77636e-15 1.77636e-15 1.11022e-16 1.11022e-16 5.55112e-17 1.38778e-17
threshold=68952827.000000015 68921137.500000015 68877804.500000015 68826344.500000015 105642.50000000001 111.78719700000001 103061.00000000001 111451.50000000001
decision_type=2 2 2 2 2 2 2 2
left_child=1 2 3 -1 -4 -5 -3 -6
right_child=-2 6 4 5 7 -7 -8 -9
leaf_value=0.10000212249986491 0.10000212249986462 0.10000212249986434 0.10000212249986457 0.10000212249986465 0.10000212249986276 0.10000212249985714 0.1000021224998642 0.1000021224998611
leaf_weight=12.245190541611002 0.69814120397677548 0.32213434529330776 0.56973622707118998 0.74625602634842003 0.047162263195787091 0.012912468828290002 0.14904375904916378 0.026438809125465923
leaf_count=578495 32981 15218 26920 35254 2232 610 7041 1249
internal_value=0 0.100002 0.100002 0.100002 0.100002 0.100002 0.100002 0.100002
internal_weight=0 14.1189 13.6477 13.0044 0.643337 0.759168 0.471178 0.0736011
internal_count=700000 667019 644760 614359 30401 35864 22259 3481
is_linear=0
shrinkage=0.1


Tree=7
num_leaves=8
num_cat=0
split_feature=0 0 1 1 1 5 5
split_gain=3.55271e-15 1.77636e-15 2.22045e-16 5.55112e-17 2.77556e-17 1.38778e-17 3.46945e-18
threshold=68901375.500000015 68885503.000000015 1528100895.6084197 1528100895.0784278 1528100786.6477642 3743.5000000000005 974.50000000000011
decision_type=2 2 2 2 2 2 2
left_child=1 -1 3 -2 -3 6 -5
right_child=2 4 -4 5 -6 -7 -8
leaf_value=0.10000191836265281 0.10000191836265196 0.1000019183626517 0.10000191836265269 0.10000191836264333 0.10000191836265085 0.10000191836265171 0.100001918362633
leaf_weight=11.870340000081338 0.211934786138955 0.16186722798556807 1.0033431393676435 0.010553643665843992 0.051695615706194076 0.092224671961957938 0.0050565552228363239
leaf_count=619762 11074 8451 52384 551 2699 4815 264
internal_value=0 0.100002 0.100002 0.100002 0.100002 0.100002 0.100002
internal_weight=0 12.0839 1.32311 0.31977 0.213563 0.107835 0.0156102
internal_count=700000 630912 69088 16704 11150 5630 815
is_linear=0
shrinkage=0.1


Tree=8
num_leaves=5
num_cat=0
split_feature=0 0 14 29
split_gain=3.55271e-15 1.77636e-15 6.93889e-18 6.93889e-18
threshold=68952827.000000015 68948630.500000015 0.0051055000000000007 0.062394500000000006
decision_type=2 2 2 2
left_child=1 -1 3 -3
right_child=-2 2 -4 -5
leaf_value=0.10000174227273183 0.10000174227273149 0.10000174227267816 0.10000174227268335 0.10000174227272961
leaf_weight=11.508749324148081 0.571591730631554 0.0033102095312650395 0.002062381854557315 0.045476386439986527
leaf_count=664085 32981 191 119 2624
internal_value=0 0.100002 0.100002 0.100002
internal_weight=0 11.5596 0.050849 0.0487866
internal_count=700000 667019 2934 2815
is_linear=0
shrinkage=0.1


Tree=9
num_leaves=8
num_cat=0
split_feature=0 15 18 18 18 15 15
split_gain=1.77636e-15 1.77636e-15 1.77636e-15 1.77636e-15 2.22045e-16 1.11022e-16 2.77556e-17
threshold=68996280.000000015 1.8114805000000003 17.933131000000003 17.888225000000002 17.923299000000004 1.8852835000000001 1.9400325000000003
decision_type=2 2 2 2 2 2 2
left_child=1 2 3 -1 -5 -3 -7
right_child=-2 5 -4 4 -6 6 -8
leaf_value=0.10000156592364562 0.10000156592364125 0.10000156592364531 0.10000156592364534 0.10000156592364534 0.10000156592364509 0.10000156592364498 0.10000156592364209
leaf_weight=8.3069926308780779 0.041148801101372423 0.69836917235079532 0.73500164162396764 0.7903423882271462 0.2051167371973861 0.17110311311625992 0.02869752515834989
leaf_count=529729 2624 44534 46893 50399 13080 10911 1830
internal_value=0 0.100002 0.100002 0.100002 0.100002 0.100002 0.100002
internal_weight=0 10.9356 10.0375 9.30245 0.995459 0.89817 0.199801
internal_count=700000 697376 640101 593208 63479 57275 12741
is_linear=0
shrinkage=0.1


Tree=10
num_leaves=2
num_cat=0
split_feature=15
split_gain=3.55271e-15
threshold=1.7748975000000002
decision_type=2
left_child=-1
right_child=-2
leaf_value=0.10000142294666875 0.10000142294666864
leaf_weight=8.2479670364846225 1.6842411235447805
leaf_count=581303 118697
internal_value=0
internal_weight=0
internal_count=700000
is_linear=0
shrinkage=0.1


Tree=11
num_leaves=12
num_cat=0
split_feature=0 0 0 13 19 11 13 5 14 0 5
split_gain=1.77636e-15 1.77636e-15 1.77636e-15 1.77636e-15 1.77636e-15 5.55112e-17 5.55112e-17 2.77556e-17 2.77556e-17 1.38778e-17 6.93889e-18
threshold=68984305.500000015 68948630.500000015 68940730.500000015 111.78719700000001 3.7635715000000007 1528101011.1333125 112.15010450000001 39029.000000000007 0.0064005000000000008 68944774.500000015 110443.50000000001
decision_type=2 2 2 2 2 2 2 2 2 2 2
left_child=1 2 3 4 -1 -3 -5 8 -2 -4 -11
right_child=7 5 9 6 -6 -7 -8 -9 -10 10 -12
leaf_value=0.10000128216262449 0.10000128216262305 0.10000128216262379 0.10000128216261946 0.10000128216262308 0.10000128216261839 0.10000128216262141 0.10000128216262386 0.10000128216260445 0.10000128216260039 0.10000128216262055 0.10000128216261284
leaf_weight=8.1173352492587494 0.13138282915133537 0.28727555968544116 0.035911049852075716 0.13237144225058806 0.029478645141353677 0.03329186709561327 0.17633262733943411 0.0050072611520590718 0.0041598784955567672 0.025870849285638542 0.0086278961389325559
leaf_count=632248 10233 22375 2797 10310 2296 2593 13747 390 324 2015 672
internal_value=0 0.100001 0.100001 0.100001 0.100001 0.100001 0.100001 0.100001 0.100001 0.100001 0.100001
internal_weight=0 8.8465 8.52593 8.45552 8.14681 0.320567 0.308704 0.14055 0.135543 0.0704098 0.0344987
internal_count=700000 689053 664085 658601 634544 24968 24057 10947 10557 5484 2687
is_linear=0
shrinkage=0.1


Tree=12
num_leaves=3
num_cat=0
split_feature=0 13
split_gain=3.55271e-15 1.77636e-15
threshold=68996280.000000015 112.18386450000001
decision_type=2 2
left_child=1 -1
right_child=-2 -3
leaf_value=0.10000116648660501 0.10000116648659917 0.10000116648660307
leaf_weight=8.0085060082637902 0.030483899172396245 0.092834160932398713
leaf_count=689372 2624 8004
internal_value=0 0.100001
internal_weight=0 8.10134
internal_count=700000 697376
is_linear=0
shrinkage=0.1


Tree=13
num_leaves=2
num_cat=0
split_feature=0
split_gain=1.77636e-15
threshold=68614438.000000015
decision_type=2
left_child=-1
right_child=-2
leaf_value=0.10000104690633552 0.10000104690633552
leaf_weight=4.5225507963596101 2.8354359982531605
leaf_count=430247 269753
internal_value=0
internal_weight=0
internal_count=700000
is_linear=0
shrinkage=0.1


Tree=14
num_leaves=2
num_cat=0
split_feature=0
split_gain=8.88178e-16
threshold=68988170.500000015
decision_type=2
left_child=-1
right_child=-2
leaf_value=0.10000094664398927 0.10000094664398816
leaf_weight=6.5792042395214594 0.078583954031273495
leaf_count=691738 8262
internal_value=0
internal_weight=0
internal_count=700000
is_linear=0
shrinkage=0.1


Tree=15
num_leaves=3
num_cat=0
split_feature=0 5
split_gain=8.88178e-16 1.11022e-16
threshold=68913229.000000015 20008.000000000004
decision_type=2 2
left_child=-1 -2
right_child=1 -3
leaf_value=0.10000085598388214 0.10000085598388181 0.10000085598388175
leaf_weight=5.5013844833274561 0.26275222930962616 0.26008425711552263
leaf_count=639241 30531 30228
internal_value=0 0.100001
internal_weight=0 0.522836
internal_count=700000 60759
is_linear=0
shrinkage=0.1


Tree=16
num_leaves=5
num_cat=0
split_feature=0 0 5 5
split_gain=8.88178e-16 2.77556e-17 6.93889e-18 1.73472e-18
threshold=68960711.000000015 68992297.000000015 36095.000000000007 39645.000000000007
decision_type=2 2 2 2
left_child=-1 -2 -3 -4
right_child=1 2 3 -5
leaf_value=0.10000077082110433 0.10000077082110381 0.1000007708211012 0.10000077082109296 0.1000007708210367
leaf_weight=5.2367535422163201 0.17209297175395466 0.031834746754611842 0.0087841473432490602 0.0014795992865401794
leaf_count=672495 22099 4088 1128 190
internal_value=0 0.100001 0.100001 0.100001
internal_weight=0 0.214191 0.0420985 0.0102637
internal_count=700000 27505 5406 1318
is_linear=0
shrinkage=0.1


Tree=17
num_leaves=7
num_cat=0
split_feature=0 0 0 1 13 5
split_gain=8.88178e-16 5.55112e-17 2.77556e-17 6.93889e-18 6.93889e-18 3.46945e-18
threshold=68944774.500000015 68988170.500000015 68980477.000000015 1528100899.2570179 112.05308900000001 15762.500000000002
decision_type=2 2 2 2 2 2
left_child=-1 2 -2 5 -3 -4
right_child=1 4 3 -5 -6 -7
leaf_value=0.10000070990710863 0.10000070990710815 0.10000070990708534 0.10000070990709815 0.10000070990710337 0.10000070990710681 0.10000070990709774
leaf_weight=4.660220713246872 0.17624214015995665 0.0042841524555115021 0.0095054632606661471 0.018884093060478335 0.053932406076455663 0.0091531480916273722
leaf_count=661398 25012 608 1349 2680 7654 1299
internal_value=0 0.100001 0.100001 0.100001 0.100001 0.100001
internal_weight=0 0.272001 0.213785 0.0375427 0.0582166 0.0186586
internal_count=700000 38602 30340 5328 8262 2648
is_linear=0
shrinkage=0.1


Tree=18
num_leaves=4
num_cat=0
split_feature=0 0 5
split_gain=8.88178e-16 1.38778e-17 6.93889e-18
threshold=68984305.500000015 68992297.000000015 20495.500000000004
decision_type=2 2 2
left_child=-1 2 -2
right_child=1 -3 -4
leaf_value=0.1000006419194361 0.10000064191943259 0.10000064191943321 0.10000064191942631
leaf_weight=4.393066442719828 0.025139633313756238 0.034467374510313675 0.010188469194872596
leaf_count=689053 3943 5406 1598
internal_value=0 0.100001 0.100001
internal_weight=0 0.0697955 0.0353281
internal_count=700000 10947 5541
is_linear=0
shrinkage=0.1


Tree=19
num_leaves=3
num_cat=0
split_feature=0 15
split_gain=8.88178e-16 2.22045e-16
threshold=68740076.500000015 0.021742000000000001
decision_type=2 2
left_child=-1 -2
right_child=1 -3
leaf_value=0.10000058330934405 0.10000058330934403 0.10000058330931608
leaf_weight=2.9886298312212602 1.045573629382488 0.0039633251308260889
leaf_count=518065 181240 695
internal_value=0 0.100001
internal_weight=0 1.04954
internal_count=700000 181935
is_linear=0
shrinkage=0.1


Tree=20
num_leaves=3
num_cat=0
split_feature=0 13
split_gain=8.88178e-16 2.22045e-16
threshold=68704957.500000015 95.920490000000015
decision_type=2 2
left_child=-1 -2
right_child=1 -3
leaf_value=0.10000052269420633 0.10000052269420519 0.1000005226942063
leaf_weight=2.5764807144355477 0.07469353703663717 1.0027120578538413
leaf_count=493593 14311 192096
internal_value=0 0.100001
internal_weight=0 1.07741
internal_count=700000 206407
is_linear=0
shrinkage=0.1


Tree=21
num_leaves=3
num_cat=0
split_feature=0 0
split_gain=4.44089e-16 5.55112e-17
threshold=68905506.500000015 68968761.500000015
decision_type=2 2
left_child=-1 -2
right_child=1 -3
leaf_value=0.10000047176069367 0.10000047176069329 0.10000047176069274
leaf_weight=2.9936204662590176 0.20943062712831295 0.10312356522535993
leaf_count=633818 44349 21833
internal_value=0 0.1
internal_weight=0 0.312554
internal_count=700000 66182
is_linear=0
shrinkage=0.1


Tree=22
num_leaves=5
num_cat=0
split_feature=0 0 5 29
split_gain=4.44089e-16 1.38778e-17 1.73472e-18 1.73472e-18
threshold=68968761.500000015 68996280.000000015 39029.000000000007 0.062466500000000008
decision_type=2 2 2 2
left_child=-1 -2 3 -3
right_child=1 2 -4 -5
leaf_value=0.100000425613053 0.10000042561305196 0.10000042561304055 0.10000042561299299 0.10000042561298852
leaf_weight=2.8982416429789741 0.082095619960455113 0.0079962988675106317 0.0016667859745211908 0.0015513930993620315
leaf_count=678167 19209 1871 390 363
internal_value=0 0.1 0.1 0.1
internal_weight=0 0.0933101 0.0112145 0.00954769
internal_count=700000 21833 2624 2234
is_linear=0
shrinkage=0.1


Tree=23
num_leaves=4
num_cat=0
split_feature=0 5 5
split_gain=4.44089e-16 1.11022e-16 3.46945e-18
threshold=68204847.500000015 108602.00000000001 110443.50000000001
decision_type=2 2 2
left_child=1 -1 -3
right_child=-2 2 -4
leaf_value=0.10000038805934319 0.10000038805934341 0.10000038805933448 0.10000038805933727
leaf_weight=0.52676545252234097 2.1528289986972595 0.011114059996543801 0.016160632124410768
leaf_count=136219 556726 2876 4179
internal_value=0 0.1 0.1
internal_weight=0 0.55404 0.0272747
internal_count=700000 143274 7055
is_linear=0
shrinkage=0.1


end of trees

feature_importances:
pkSeqID=40
sport=18
dur=9
seq=5
stddev=5
sum=5
stime=4
mean=2
rate=2
saddr=1
ltime=1
min=1
category=1

parameters:
[boosting: gbdt]
[objective: binary]
[metric: binary_logloss]
[tree_learner: serial]
[device_type: cpu]
[data_sample_strategy: bagging]
[data: ]
[valid: ]
[num_iterations: 100]
[learning_rate: 0.1]
[num_leaves: 31]
[num_threads: 6]
[seed: 0]
[deterministic: 0]
[force_col_wise: 0]
[force_row_wise: 0]
[histogram_pool_size: -1]
[max_depth: -1]
[min_data_in_leaf: 20]
[min_sum_hessian_in_leaf: 0.001]
[bagging_fraction: 1]
[pos_bagging_fraction: 1]
[neg_bagging_fraction: 1]
[bagging_freq: 0]
[bagging_seed: 3]
[feature_fraction: 1]
[feature_fraction_bynode: 1]
[feature_fraction_seed: 2]
[extra_trees: 0]
[extra_seed: 6]
[early_stopping_round: 0]
[early_stopping_min_delta: 0]
[first_metric_only: 0]
[max_delta_step: 0]
[lambda_l1: 0]
[lambda_l2: 0]
[linear_lambda: 0]
[min_gain_to_split: 0]
[drop_rate: 0.1]
[max_drop: 50]
[skip_drop: 0.5]
[xgboost_dart_mode: 0]
[uniform_drop: 0]
[drop_seed: 4]
[top_rate: 0.2]
[other_rate: 0.1]
[min_data_per_group: 100]
[max_cat_threshold: 32]
[cat_l2: 10]
[cat_smooth: 10]
[max_cat_to_onehot: 4]
[top_k: 20]
[monotone_constraints: ]
[monotone_constraints_method: basic]
[monotone_penalty: 0]
[feature_contri: ]
[forcedsplits_filename: ]
[refit_decay_rate: 0.9]
[cegb_tradeoff: 1]
[cegb_penalty_split: 0]
[cegb_penalty_feature_lazy: ]
[cegb_penalty_feature_coupled: ]
[path_smooth: 0]
[interaction_constraints: ]
[verbosity: 1]
[saved_feature_importance_type: 0]
[use_quantized_grad: 0]
[num_grad_quant_bins: 4]
[quant_train_renew_leaf: 0]
[stochastic_rounding: 1]
[linear_tree: 0]
[max_bin: 255]
[max_bin_by_feature: ]
[min_data_in_bin: 3]
[bin_construct_sample_cnt: 200000]
[data_random_seed: 1]
[is_enable_sparse: 1]
[enable_bundle: 1]
[use_missing: 1]
[zero_as_missing: 0]
[feature_pre_filter: 1]
[pre_partition: 0]
[two_round: 0]
[header: 0]
[label_column: ]
[weight_column: ]
[group_column: ]
[ignore_column: ]
[categorical_feature: ]
[forcedbins_filename: ]
[precise_float_parser: 0]
[parser_config_file: ]
[objective_seed: 5]
[num_class: 1]
[is_unbalance: 0]
[scale_pos_weight: 1]
[sigmoid: 1]
[boost_from_average: 1]
[reg_sqrt: 0]
[alpha: 0.9]
[fair_c: 1]
[poisson_max_delta_step: 0.7]
[tweedie_variance_power: 1.5]
[lambdarank_truncation_level: 30]
[lambdarank_norm: 1]
[label_gain: ]
[lambdarank_position_bias_regularization: 0]
[eval_at: ]
[multi_error_top_k: 1]
[auc_mu_weights: ]
[num_machines: 1]
[local_listen_port: 12400]
[time_out: 120]
[machine_list_filename: ]
[machines: ]
[gpu_platform_id: -1]
[gpu_device_id: -1]
[gpu_use_dp: 0]
[num_gpu: 1]

end of parameters

pandas_categorical:[]
